nep4 2 Cu Mo 
cutoff 5 5 86 86
n_max 2 1
basis_size 8 8
l_max 4 0 0
ANN 2 0
  1.2150679e+00
  1.3816061e+00
 -3.0306418e+00
  3.0824423e-01
 -1.1447467e+00
  4.0744767e-01
 -1.0786003e+00
 -1.5047859e-01
 -5.7680291e-01
  2.7594221e-01
 -1.3800310e+00
  1.5224775e+00
 -3.2809813e+00
  3.3735244e+00
 -1.3548539e+00
  2.0405643e+00
 -7.1544117e-01
  6.9812590e-01
 -1.0967228e+00
  1.1400571e+00
 -5.2375776e-01
  1.7227253e+00
  1.0289255e+00
  1.0539515e+00
 -4.2433147e+00
  7.6719398e+00
 -2.3868690e-01
 -3.2557256e+00
 -3.7454338e+00
 -5.8761664e-04
 -5.3627491e-01
 -8.2489198e-01
 -8.2133755e-02
 -1.0247226e+00
 -5.6289947e-01
 -1.6749707e+00
 -1.2004311e+00
  4.0893216e+00
 -2.7921016e+00
 -1.1041455e+00
 -4.6463265e+00
  8.7367976e-01
 -1.2426968e+00
  2.5164923e-01
 -4.4771713e-01
  7.1096557e-01
 -8.9950806e-01
  1.7636662e+00
 -1.6620528e+00
 -3.1734340e-02
 -8.7075481e+00
 -6.4581676e+00
 -3.8402241e-01
  1.0422059e+00
  1.6065148e-01
  5.0389461e-02
  3.7704515e-01
  5.1039133e-02
  4.7458560e-04
  8.0762367e-04
 -1.6788187e+00
  3.1625493e-03
 -1.1830159e-03
  5.5249465e-01
  1.5301530e+00
  1.0954551e-01
  5.5198397e-02
  1.6060838e-02
  6.9862252e-01
  8.0599952e-01
  5.3037984e-05
 -3.4433511e-01
 -1.9930965e+00
  2.4887213e-01
  4.1693854e-03
  3.0036196e-01
  8.2640123e-01
  2.2406733e-01
  1.1572925e-01
  2.0943813e+00
  1.9213650e+00
 -7.1967952e-03
 -2.0917067e-01
 -7.3842812e-01
 -8.5107362e-01
  1.6693746e+00
  6.7678171e-01
 -9.9208802e-02
 -2.8712296e-01
  1.2007607e-03
 -1.0109247e+00
  6.3846546e-01
  1.0699086e+00
 -7.0479476e-01
 -5.0495458e-01
  4.0285936e-01
  1.4445959e+00
  9.9067551e-01
  8.7533474e-01
 -5.0193906e-01
 -5.6660694e-01
  6.2800199e-01
 -1.7264582e-01
 -1.1325167e-01
 -1.9005655e-01
 -1.3255143e+00
 -1.4442265e+00
  1.9188546e+00
  2.1880355e+00
  5.9606600e-01
  9.6475768e-01
 -9.9632931e-01
 -3.9138681e-01
  1.3362194e+00
  1.3437929e+00
 -7.3161292e-01
 -3.6029565e-01
 -7.9391348e-01
 -1.5540470e+00
  1.3378245e+00
  2.3257148e+00
 -1.6744636e+00
 -7.9714811e-01
  1.9595783e+00
  5.7271861e-02
 -3.1421864e-01
 -2.4328002e-01
  3.4546390e-02
 -1.0709535e-01
  9.7777045e-01
  8.8301504e-01
  7.0833164e-01
  5.2426809e-01
 -6.2772328e-01
 -1.6376001e+00
 -8.7722558e-01
 -7.8997874e-01
 -8.2053131e-01
 -3.7854958e-01
  1.1047111e-01
  5.7457596e-02
  1.8009137e+00
  2.4797473e+00
  7.1045142e-01
  3.2445049e-01
  1.6729072e-01
 -1.2694223e+00
 -7.6315856e-01
 -9.7009462e-01
  1.3599499e-01
 -8.1886905e-01
  2.6920915e-01
  6.3464195e-01
  1.1951129e-01
  6.5648919e-01
 -3.3882922e-01
 -9.1410857e-01
  1.5723680e-01
  9.8540300e-01
  7.1395451e-01
  1.4072711e+00
 -4.8578888e-01
 -7.3833752e-01
  1.2192080e+00
  1.1803697e+00
 -7.6111239e-01
 -2.5673449e-01
  1.4581753e+00
  1.0067976e+00
  5.8204353e-01
  1.1363574e-01
 -1.4765730e+00
 -1.0430640e-01
 -7.9570544e-01
 -4.8958313e-01
 -6.7858028e-01
 -4.4275340e-01
 -1.3065773e+00
 -1.1564009e+00
  2.1647320e+00
  1.8898321e+00
  7.1465391e-01
  1.1115413e+00
  1.8960837e+00
  1.1010500e+00
  3.6886320e-02
 -5.4240638e-01
 -3.9108923e-01
 -6.1181349e-01
 -8.1892274e-02
 -4.2281622e-01
 -1.1381222e+00
 -5.4889727e-01
 -1.5944402e-01
  2.7180853e-01
  1.7744269e-02
  2.7029017e-01
 -8.5069403e-02
 -3.0937377e-01
 -3.0972961e-01
 -1.2646633e+00
 -1.7993332e+00
 -1.6441575e+00
 -1.0539448e-03
 -5.3455865e-01
  8.6019337e-01
  1.6709983e+00
  1.0070547e+00
  1.2641033e+00
  7.3256910e-02
  6.9681317e-01
 -3.2848816e-02
 -6.3542604e-01
 -2.6005108e+00
 -2.3239844e+00
 -9.6438438e-01
 -2.0079248e+00
 -1.3560365e+00
 -1.4367348e+00
  1.3200663e+00
  1.9864314e+00
  4.8532316e-01
  6.3409947e-02
 -4.3812820e-01
 -1.5493118e+00
  4.8272356e-01
 -5.6291229e-01
 -8.2882112e-01
 -3.8138750e-01
  2.1664044e-02
 -1.0901102e-01
 -7.4880934e-01
 -3.8518205e-01
  1.2187759e-02
  1.2187759e-02
  1.2187759e-02
  3.5948005e-02
  3.5948005e-02
  5.3176325e-02
  5.3176325e-02
  3.8383417e-02
  3.8383417e-02
  1.0860755e-02
  1.0860755e-02
